Language model created by QuickLM on Mon Apr 12 11:51:25 EDT 2021
Copyright (c) 1996-2010 Carnegie Mellon University and Alexander I. Rudnicky

The model is in standard ARPA format, designed by Doug Paul while he was at MITRE.

The code that was used to produce this language model is available in Open Source.
Please visit http://www.speech.cs.cmu.edu/tools/ for more information

The (fixed) discount mass is 0.5. The backoffs are computed using the ratio method.
This model based on a corpus of 60 sentences and 62 words

\data\
ngram 1=62
ngram 2=180
ngram 3=120

\1-grams:
-0.9031 </s> -0.3010
-0.9031 <s> -0.1761
-2.3802 AA -0.2410
-2.3802 AE -0.2410
-2.3802 AH -0.2410
-2.3802 AO -0.2410
-2.3802 AW -0.2410
-2.3802 AX -0.2410
-2.3802 AXL -0.2410
-2.3802 AXM -0.2410
-2.3802 AXN -0.2410
-2.3802 AY -0.2410
-2.3802 B -0.2410
-2.3802 BL -0.2410
-2.3802 CH -0.2410
-2.3802 D -0.2410
-2.3802 DH -0.2410
-2.3802 DZ -0.2410
-2.3802 EH -0.2410
-2.3802 EHR -0.2410
-2.3802 ER -0.2410
-2.3802 EY -0.2410
-2.3802 F -0.2410
-2.3802 G -0.2410
-2.3802 GR -0.2410
-2.3802 HH -0.2410
-2.3802 IH -0.2410
-2.3802 IY -0.2410
-2.3802 JH -0.2410
-2.3802 K -0.2410
-2.3802 KL -0.2410
-2.3802 KR -0.2410
-2.3802 KS -0.2410
-2.3802 KW -0.2410
-2.3802 L -0.2410
-2.3802 M -0.2410
-2.3802 N -0.2410
-2.3802 NG -0.2410
-2.3802 OH -0.2410
-2.3802 OW -0.2410
-2.3802 OY -0.2410
-2.3802 P -0.2410
-2.3802 PL -0.2410
-2.3802 PR -0.2410
-2.3802 R -0.2410
-2.3802 S -0.2410
-2.3802 SH -0.2410
-2.3802 SIL -0.2410
-2.3802 T -0.2410
-2.3802 TH -0.2410
-2.3802 TR -0.2410
-2.3802 TS -0.2410
-2.3802 UH -0.2410
-2.3802 UW -0.2410
-2.3802 UWL -0.2410
-2.3802 UWM -0.2410
-2.3802 UWN -0.2410
-2.3802 V -0.2410
-2.3802 W -0.2410
-2.3802 Y -0.2410
-2.3802 Z -0.2410
-2.3802 ZH -0.2410

\2-grams:
-2.0792 <s> AA -0.1761
-2.0792 <s> AE -0.1761
-2.0792 <s> AH -0.1761
-2.0792 <s> AO -0.1761
-2.0792 <s> AW -0.1761
-2.0792 <s> AX -0.1761
-2.0792 <s> AXL -0.1761
-2.0792 <s> AXM -0.1761
-2.0792 <s> AXN -0.1761
-2.0792 <s> AY -0.1761
-2.0792 <s> B -0.1761
-2.0792 <s> BL -0.1761
-2.0792 <s> CH -0.1761
-2.0792 <s> D -0.1761
-2.0792 <s> DH -0.1761
-2.0792 <s> DZ -0.1761
-2.0792 <s> EH -0.1761
-2.0792 <s> EHR -0.1761
-2.0792 <s> ER -0.1761
-2.0792 <s> EY -0.1761
-2.0792 <s> F -0.1761
-2.0792 <s> G -0.1761
-2.0792 <s> GR -0.1761
-2.0792 <s> HH -0.1761
-2.0792 <s> IH -0.1761
-2.0792 <s> IY -0.1761
-2.0792 <s> JH -0.1761
-2.0792 <s> K -0.1761
-2.0792 <s> KL -0.1761
-2.0792 <s> KR -0.1761
-2.0792 <s> KS -0.1761
-2.0792 <s> KW -0.1761
-2.0792 <s> L -0.1761
-2.0792 <s> M -0.1761
-2.0792 <s> N -0.1761
-2.0792 <s> NG -0.1761
-2.0792 <s> OH -0.1761
-2.0792 <s> OW -0.1761
-2.0792 <s> OY -0.1761
-2.0792 <s> P -0.1761
-2.0792 <s> PL -0.1761
-2.0792 <s> PR -0.1761
-2.0792 <s> R -0.1761
-2.0792 <s> S -0.1761
-2.0792 <s> SH -0.1761
-2.0792 <s> SIL -0.1761
-2.0792 <s> T -0.1761
-2.0792 <s> TH -0.1761
-2.0792 <s> TR -0.1761
-2.0792 <s> TS -0.1761
-2.0792 <s> UH -0.1761
-2.0792 <s> UW -0.1761
-2.0792 <s> UWL -0.1761
-2.0792 <s> UWM -0.1761
-2.0792 <s> UWN -0.1761
-2.0792 <s> V -0.1761
-2.0792 <s> W -0.1761
-2.0792 <s> Y -0.1761
-2.0792 <s> Z -0.1761
-2.0792 <s> ZH -0.1761
-0.6021 AA </s> -0.3010
-0.6021 AA AA -0.1761
-0.6021 AE </s> -0.3010
-0.6021 AE AE -0.1761
-0.6021 AH </s> -0.3010
-0.6021 AH AH -0.1761
-0.6021 AO </s> -0.3010
-0.6021 AO AO -0.1761
-0.6021 AW </s> -0.3010
-0.6021 AW AW -0.1761
-0.6021 AX </s> -0.3010
-0.6021 AX AX -0.1761
-0.6021 AXL </s> -0.3010
-0.6021 AXL AXL -0.1761
-0.6021 AXM </s> -0.3010
-0.6021 AXM AXM -0.1761
-0.6021 AXN </s> -0.3010
-0.6021 AXN AXN -0.1761
-0.6021 AY </s> -0.3010
-0.6021 AY AY -0.1761
-0.6021 B </s> -0.3010
-0.6021 B B -0.1761
-0.6021 BL </s> -0.3010
-0.6021 BL BL -0.1761
-0.6021 CH </s> -0.3010
-0.6021 CH CH -0.1761
-0.6021 D </s> -0.3010
-0.6021 D D -0.1761
-0.6021 DH </s> -0.3010
-0.6021 DH DH -0.1761
-0.6021 DZ </s> -0.3010
-0.6021 DZ DZ -0.1761
-0.6021 EH </s> -0.3010
-0.6021 EH EH -0.1761
-0.6021 EHR </s> -0.3010
-0.6021 EHR EHR -0.1761
-0.6021 ER </s> -0.3010
-0.6021 ER ER -0.1761
-0.6021 EY </s> -0.3010
-0.6021 EY EY -0.1761
-0.6021 F </s> -0.3010
-0.6021 F F -0.1761
-0.6021 G </s> -0.3010
-0.6021 G G -0.1761
-0.6021 GR </s> -0.3010
-0.6021 GR GR -0.1761
-0.6021 HH </s> -0.3010
-0.6021 HH HH -0.1761
-0.6021 IH </s> -0.3010
-0.6021 IH IH -0.1761
-0.6021 IY </s> -0.3010
-0.6021 IY IY -0.1761
-0.6021 JH </s> -0.3010
-0.6021 JH JH -0.1761
-0.6021 K </s> -0.3010
-0.6021 K K -0.1761
-0.6021 KL </s> -0.3010
-0.6021 KL KL -0.1761
-0.6021 KR </s> -0.3010
-0.6021 KR KR -0.1761
-0.6021 KS </s> -0.3010
-0.6021 KS KS -0.1761
-0.6021 KW </s> -0.3010
-0.6021 KW KW -0.1761
-0.6021 L </s> -0.3010
-0.6021 L L -0.1761
-0.6021 M </s> -0.3010
-0.6021 M M -0.1761
-0.6021 N </s> -0.3010
-0.6021 N N -0.1761
-0.6021 NG </s> -0.3010
-0.6021 NG NG -0.1761
-0.6021 OH </s> -0.3010
-0.6021 OH OH -0.1761
-0.6021 OW </s> -0.3010
-0.6021 OW OW -0.1761
-0.6021 OY </s> -0.3010
-0.6021 OY OY -0.1761
-0.6021 P </s> -0.3010
-0.6021 P P -0.1761
-0.6021 PL </s> -0.3010
-0.6021 PL PL -0.1761
-0.6021 PR </s> -0.3010
-0.6021 PR PR -0.1761
-0.6021 R </s> -0.3010
-0.6021 R R -0.1761
-0.6021 S </s> -0.3010
-0.6021 S S -0.1761
-0.6021 SH </s> -0.3010
-0.6021 SH SH -0.1761
-0.6021 SIL </s> -0.3010
-0.6021 SIL SIL -0.1761
-0.6021 T </s> -0.3010
-0.6021 T T -0.1761
-0.6021 TH </s> -0.3010
-0.6021 TH TH -0.1761
-0.6021 TR </s> -0.3010
-0.6021 TR TR -0.1761
-0.6021 TS </s> -0.3010
-0.6021 TS TS -0.1761
-0.6021 UH </s> -0.3010
-0.6021 UH UH -0.1761
-0.6021 UW </s> -0.3010
-0.6021 UW UW -0.1761
-0.6021 UWL </s> -0.3010
-0.6021 UWL UWL -0.1761
-0.6021 UWM </s> -0.3010
-0.6021 UWM UWM -0.1761
-0.6021 UWN </s> -0.3010
-0.6021 UWN UWN -0.1761
-0.6021 V </s> -0.3010
-0.6021 V V -0.1761
-0.6021 W </s> -0.3010
-0.6021 W W -0.1761
-0.6021 Y </s> -0.3010
-0.6021 Y Y -0.1761
-0.6021 Z </s> -0.3010
-0.6021 Z Z -0.1761
-0.6021 ZH </s> -0.3010
-0.6021 ZH ZH -0.1761

\3-grams:
-0.3010 <s> AA AA
-0.3010 <s> AE AE
-0.3010 <s> AH AH
-0.3010 <s> AO AO
-0.3010 <s> AW AW
-0.3010 <s> AX AX
-0.3010 <s> AXL AXL
-0.3010 <s> AXM AXM
-0.3010 <s> AXN AXN
-0.3010 <s> AY AY
-0.3010 <s> B B
-0.3010 <s> BL BL
-0.3010 <s> CH CH
-0.3010 <s> D D
-0.3010 <s> DH DH
-0.3010 <s> DZ DZ
-0.3010 <s> EH EH
-0.3010 <s> EHR EHR
-0.3010 <s> ER ER
-0.3010 <s> EY EY
-0.3010 <s> F F
-0.3010 <s> G G
-0.3010 <s> GR GR
-0.3010 <s> HH HH
-0.3010 <s> IH IH
-0.3010 <s> IY IY
-0.3010 <s> JH JH
-0.3010 <s> K K
-0.3010 <s> KL KL
-0.3010 <s> KR KR
-0.3010 <s> KS KS
-0.3010 <s> KW KW
-0.3010 <s> L L
-0.3010 <s> M M
-0.3010 <s> N N
-0.3010 <s> NG NG
-0.3010 <s> OH OH
-0.3010 <s> OW OW
-0.3010 <s> OY OY
-0.3010 <s> P P
-0.3010 <s> PL PL
-0.3010 <s> PR PR
-0.3010 <s> R R
-0.3010 <s> S S
-0.3010 <s> SH SH
-0.3010 <s> SIL SIL
-0.3010 <s> T T
-0.3010 <s> TH TH
-0.3010 <s> TR TR
-0.3010 <s> TS TS
-0.3010 <s> UH UH
-0.3010 <s> UW UW
-0.3010 <s> UWL UWL
-0.3010 <s> UWM UWM
-0.3010 <s> UWN UWN
-0.3010 <s> V V
-0.3010 <s> W W
-0.3010 <s> Y Y
-0.3010 <s> Z Z
-0.3010 <s> ZH ZH
-0.3010 AA AA </s>
-0.3010 AE AE </s>
-0.3010 AH AH </s>
-0.3010 AO AO </s>
-0.3010 AW AW </s>
-0.3010 AX AX </s>
-0.3010 AXL AXL </s>
-0.3010 AXM AXM </s>
-0.3010 AXN AXN </s>
-0.3010 AY AY </s>
-0.3010 B B </s>
-0.3010 BL BL </s>
-0.3010 CH CH </s>
-0.3010 D D </s>
-0.3010 DH DH </s>
-0.3010 DZ DZ </s>
-0.3010 EH EH </s>
-0.3010 EHR EHR </s>
-0.3010 ER ER </s>
-0.3010 EY EY </s>
-0.3010 F F </s>
-0.3010 G G </s>
-0.3010 GR GR </s>
-0.3010 HH HH </s>
-0.3010 IH IH </s>
-0.3010 IY IY </s>
-0.3010 JH JH </s>
-0.3010 K K </s>
-0.3010 KL KL </s>
-0.3010 KR KR </s>
-0.3010 KS KS </s>
-0.3010 KW KW </s>
-0.3010 L L </s>
-0.3010 M M </s>
-0.3010 N N </s>
-0.3010 NG NG </s>
-0.3010 OH OH </s>
-0.3010 OW OW </s>
-0.3010 OY OY </s>
-0.3010 P P </s>
-0.3010 PL PL </s>
-0.3010 PR PR </s>
-0.3010 R R </s>
-0.3010 S S </s>
-0.3010 SH SH </s>
-0.3010 SIL SIL </s>
-0.3010 T T </s>
-0.3010 TH TH </s>
-0.3010 TR TR </s>
-0.3010 TS TS </s>
-0.3010 UH UH </s>
-0.3010 UW UW </s>
-0.3010 UWL UWL </s>
-0.3010 UWM UWM </s>
-0.3010 UWN UWN </s>
-0.3010 V V </s>
-0.3010 W W </s>
-0.3010 Y Y </s>
-0.3010 Z Z </s>
-0.3010 ZH ZH </s>

\end\
